11 128
1 -0.003890 -0.003827 0.003682 -0.002689 0.001698 -0.003768 -0.000661 0.002723 0.003106 0.000216 -0.002323 -0.000733 0.002180 -0.001569 -0.001954 -0.002342 0.002218 -0.001675 0.003671 -0.001987 0.001495 -0.000346 0.000723 0.001429 0.000826 0.001048 0.002416 0.003581 0.001492 -0.002075 -0.003740 0.002297 -0.000282 0.000849 -0.001701 -0.003012 -0.003801 -0.001751 0.003527 -0.003898 -0.002656 -0.002873 0.002506 0.002231 -0.001283 -0.002663 -0.002339 0.000396 0.003488 0.003076 -0.003264 0.003370 -0.001374 0.003765 -0.003338 0.000822 -0.000379 0.003529 -0.002677 0.001727 0.001848 -0.003760 -0.002846 -0.000029 -0.002848 0.001024 0.000856 0.001833 -0.003453 0.000122 -0.000056 -0.003500 0.003563 -0.000138 -0.002605 -0.002262 0.002888 -0.002428 0.002126 -0.003641 -0.001456 -0.003300 0.000215 -0.002930 -0.001689 -0.003133 -0.001379 -0.000568 0.002760 0.000816 0.000584 0.000452 0.000519 -0.000247 -0.000716 -0.000869 -0.000421 -0.002641 0.003083 0.001471 -0.002478 0.002675 0.002223 -0.001017 0.002210 0.003490 0.002796 0.002110 -0.001646 0.000935 -0.001486 -0.002016 0.000996 0.003409 -0.001757 -0.001917 0.002949 0.001851 -0.003011 -0.001918 -0.000477 0.002303 -0.003204 0.000467 -0.001254 -0.000970 -0.001093 0.000865
11 -0.003200 -0.002531 0.001463 0.001250 0.002030 -0.001551 -0.002826 0.003279 0.002622 -0.003165 -0.000649 0.000833 -0.002108 0.002341 0.003646 -0.003270 -0.001420 -0.000725 0.000487 -0.003123 0.002531 -0.001048 0.002375 0.000572 -0.001126 -0.002199 -0.001797 0.000346 -0.002603 -0.002799 0.002096 -0.000533 0.002290 -0.003643 0.001939 0.003475 0.003533 0.002463 0.000107 0.003532 0.002463 0.002774 0.003652 -0.000339 -0.001350 0.002234 0.002965 0.002738 -0.001429 0.001744 0.001626 0.000877 -0.000010 -0.000055 -0.000177 -0.002717 0.000861 0.002563 -0.003756 0.001132 -0.000255 -0.002310 0.003722 0.002697 -0.002957 0.001195 -0.003830 -0.000775 0.002583 -0.003408 0.000436 -0.000403 -0.002766 -0.001208 0.003640 0.001249 0.001054 -0.002724 -0.002641 -0.001268 0.001467 0.003540 -0.000776 -0.001079 -0.003406 -0.000366 0.003750 0.000259 0.001763 0.000691 -0.001442 -0.002872 0.001224 0.002904 0.001676 -0.002298 0.002044 -0.000624 -0.001164 0.003245 0.003418 0.003550 -0.001253 0.000912 -0.001313 -0.000539 0.001958 -0.002915 0.001715 -0.002485 -0.000293 0.003297 -0.003858 -0.002029 -0.000393 -0.001874 -0.002686 0.001931 -0.000900 -0.002145 0.001158 -0.002561 0.003668 -0.003636 -0.001262 -0.003572 -0.002303 0.000302
13 0.002685 0.000386 0.001361 -0.002729 -0.001155 -0.000687 0.001144 -0.002573 0.000924 0.002708 -0.002145 -0.002573 0.001709 -0.003287 0.001119 -0.000354 -0.003008 -0.001320 -0.001284 -0.002920 0.003673 -0.000141 -0.003608 0.000999 -0.003657 -0.000065 0.003632 0.002579 0.000931 0.000104 -0.002395 0.002099 -0.001076 -0.002197 0.000222 -0.002337 0.003598 0.003758 0.000575 -0.000782 0.002047 0.000296 0.000094 0.001770 0.000044 0.003286 0.001159 0.000816 -0.001940 0.002490 -0.002583 0.002706 0.002124 0.002554 -0.002714 -0.002514 -0.003192 -0.002599 0.002418 -0.002615 0.002428 0.000542 -0.002264 -0.002883 0.002628 -0.002779 -0.002409 -0.002435 0.003097 -0.003538 -0.002474 -0.001677 -0.000035 -0.002285 0.001388 -0.003376 -0.001181 -0.001597 -0.003001 -0.002750 0.000370 -0.002723 -0.000953 -0.001823 -0.003646 -0.000188 0.002400 -0.000640 -0.002857 0.003903 0.003865 -0.001643 -0.002672 -0.003281 0.000612 -0.002050 -0.000048 -0.003779 -0.002701 0.000161 0.002850 0.000251 -0.001035 0.000080 -0.001246 -0.003834 0.002931 -0.002254 -0.000248 -0.003794 0.003646 -0.000656 -0.000903 0.002934 -0.003157 -0.002801 -0.002979 0.003225 0.001295 -0.002126 0.000840 0.002747 0.003723 0.001546 -0.001376 0.002568 0.001796 0.002919
12 -0.003741 -0.003144 0.000389 -0.002715 -0.002051 -0.001425 -0.002542 -0.003633 -0.002402 0.002601 0.003727 0.003886 -0.000942 0.001946 0.000206 0.002687 -0.003505 0.001189 0.002448 -0.003626 0.001430 0.003081 0.001474 -0.002015 -0.003593 -0.001576 0.002173 0.001124 0.000464 -0.000516 0.001730 0.001496 -0.003849 0.001118 0.001242 0.002775 -0.001127 0.002461 0.000063 0.002000 0.000092 -0.000222 0.001971 -0.001089 -0.001008 0.003660 0.001742 -0.000867 -0.003208 -0.001379 -0.001610 0.001764 -0.000739 -0.003792 -0.003138 -0.003280 0.000495 0.000514 -0.000095 0.001554 0.002555 0.001574 -0.002576 0.002170 -0.003146 0.000430 0.002338 -0.000424 0.003323 0.003702 0.003898 0.002087 0.001315 0.001197 0.000875 -0.000391 0.003552 0.003222 0.000654 0.003694 -0.000794 0.000994 -0.003163 -0.002122 -0.002877 0.003296 -0.000788 -0.000835 -0.002523 -0.003095 -0.000372 0.002822 -0.001459 -0.001242 0.001780 -0.002401 0.002653 -0.003670 0.001384 -0.000031 -0.003894 -0.003295 0.000390 0.000837 0.000262 -0.003827 0.000422 -0.000509 0.003655 -0.003384 -0.003329 -0.000273 -0.000026 0.002428 0.000984 0.002997 -0.001356 0.003289 -0.003699 -0.003313 -0.001671 -0.001891 0.001758 0.002583 -0.001442 0.000466 -0.003867 -0.000045
20 -0.000544 -0.001459 0.000015 0.000855 -0.002817 -0.003599 0.003437 0.001804 -0.002853 -0.001554 -0.002256 -0.002692 0.003906 -0.000490 -0.001433 -0.000810 -0.002930 0.001358 -0.001323 -0.003066 0.002129 -0.001729 0.002658 0.000323 0.001510 0.002845 0.003836 -0.000976 0.001218 -0.003164 -0.002941 -0.001246 0.001054 -0.000922 0.002635 0.001792 0.003622 -0.002863 -0.002638 -0.003903 -0.003498 -0.002107 -0.002494 0.000127 0.001842 -0.000101 0.003233 0.000314 0.001112 -0.002774 -0.003644 0.000247 0.002487 -0.003526 -0.000727 0.000631 0.000342 -0.003740 -0.003174 0.002236 0.003885 0.001622 0.001344 0.001219 -0.000644 -0.000696 0.000180 0.002428 -0.002788 0.002990 -0.002089 0.001565 -0.001772 -0.000435 -0.000285 0.002189 0.001702 -0.000850 0.001304 0.002642 0.000966 -0.003353 -0.000378 -0.003511 0.002525 0.003678 -0.002901 0.001395 -0.002371 0.001846 0.002409 0.000435 0.000478 -0.001031 0.001265 -0.000246 0.002089 -0.000632 -0.002800 0.003398 -0.002235 -0.002984 -0.003354 0.003343 -0.000553 0.002484 -0.000713 0.000542 0.003114 0.002907 -0.001969 0.002362 0.000533 0.001759 -0.002317 -0.001873 0.003070 0.002003 0.000425 0.000826 -0.000533 0.003756 -0.000146 -0.002962 0.001357 0.002085 -0.002745 0.001127
14 -0.001650 -0.002281 0.003767 -0.003069 0.002042 0.001344 -0.002192 -0.001335 -0.002119 0.002038 -0.003785 0.001662 -0.001417 -0.000273 0.000102 0.001356 0.002176 -0.000037 0.000875 -0.002285 0.002553 0.003824 -0.000172 0.002206 -0.001252 0.001903 0.002900 0.003857 -0.003534 0.002968 0.001953 0.001132 -0.001326 0.002925 0.002490 -0.001340 -0.001461 -0.000030 -0.001245 -0.000196 -0.003302 0.000253 0.001750 0.002350 -0.000273 0.000987 0.001102 0.002316 0.000032 0.003664 -0.001448 -0.000119 -0.001110 0.002163 0.000189 -0.001455 -0.003158 0.003686 -0.002621 -0.002014 -0.000354 -0.002905 0.002378 -0.003332 -0.002834 0.002397 0.002192 -0.002578 -0.000510 -0.001953 -0.002787 0.002698 -0.002925 0.003685 0.003051 0.001837 0.001360 -0.000659 -0.000591 -0.003315 -0.001843 0.000490 0.002458 0.003699 -0.002874 0.003297 -0.001508 -0.001379 0.002159 -0.000875 -0.001000 -0.000915 0.000053 -0.001004 -0.002006 0.003837 -0.002575 0.003336 0.002988 0.000769 -0.003034 0.000123 -0.000426 0.002096 -0.003250 0.002358 0.003525 0.003562 -0.003664 -0.000902 -0.003453 -0.002914 -0.002225 0.001684 0.003392 -0.001222 -0.002571 -0.000922 -0.001187 0.001363 0.000061 -0.002030 -0.000601 -0.003016 0.001864 -0.001470 -0.002118 0.000175
22 0.002478 -0.001855 -0.000781 0.000100 -0.000558 -0.002630 -0.001069 -0.001142 -0.002412 -0.001152 -0.001371 0.001109 0.002112 -0.001984 0.002240 -0.001297 -0.002633 -0.001121 0.003712 0.003261 0.002515 -0.000301 0.003346 0.000427 -0.002995 0.003416 -0.001000 -0.003870 0.001911 0.002618 -0.000067 -0.002612 -0.002896 0.000066 -0.001151 -0.002729 -0.000925 -0.001454 -0.002275 -0.002956 0.003540 -0.003661 -0.003036 0.002882 0.002194 0.003786 -0.003365 0.002389 0.002777 -0.001746 -0.002370 -0.002106 -0.003365 -0.001475 0.003481 0.000608 0.002678 0.003134 0.002085 -0.003054 0.001591 0.001623 0.001849 0.003247 -0.000713 0.001101 -0.003794 0.001914 0.003661 0.003076 -0.001633 0.001964 -0.000434 -0.001476 0.003781 0.001758 -0.002880 0.001694 0.002904 -0.000610 -0.002824 -0.001145 0.002623 -0.003691 -0.000250 -0.002419 0.002886 -0.003267 0.002454 -0.000040 0.001992 -0.001647 0.000159 -0.003432 -0.000544 0.000607 -0.000808 0.000487 0.002856 -0.002562 -0.000689 0.000850 0.001868 0.002915 0.001130 0.002709 -0.000499 0.002291 0.000096 0.000521 0.002744 0.000361 0.002457 0.002985 -0.001527 -0.000376 -0.002686 0.000136 -0.002527 -0.001160 0.001643 -0.001924 0.001398 -0.002146 0.001263 0.000481 0.002147 0.000502
32 -0.001856 -0.002841 -0.003733 0.000220 0.000348 0.000456 0.002391 -0.000824 -0.001863 0.000798 -0.001026 0.001920 -0.001456 0.001183 0.000348 0.002357 0.001175 -0.001198 -0.003619 0.000320 -0.000190 0.002800 -0.003126 -0.001964 -0.003075 -0.001126 -0.001683 0.003634 0.001396 -0.002181 -0.001061 -0.000433 0.003774 0.002333 -0.002179 0.000382 0.002861 0.003447 -0.000756 -0.002389 -0.002664 0.001495 -0.000522 -0.000728 -0.003152 -0.001286 0.002890 0.001658 -0.000562 -0.003319 -0.000335 0.001252 -0.001324 0.001813 -0.002912 -0.002495 -0.001499 -0.000264 -0.000068 -0.000973 0.000917 0.000452 -0.003016 0.003371 -0.003362 -0.000954 -0.002488 0.002591 0.000666 -0.003458 -0.003162 0.002975 0.001076 -0.001481 -0.002272 0.002547 0.000913 0.000617 -0.000358 -0.000156 -0.000949 -0.001555 0.003032 0.000440 0.000009 0.003444 0.001626 0.000799 0.001207 -0.002607 0.001050 0.002586 0.001951 -0.002502 0.001504 -0.000146 0.000368 -0.000879 -0.003619 -0.003648 0.001822 -0.002605 -0.003108 -0.002226 0.002416 0.003836 0.003050 -0.002401 -0.003425 0.001731 0.000635 -0.002235 0.002163 0.002939 0.002878 0.002226 -0.000494 0.003079 0.003363 -0.001475 -0.001385 -0.003698 -0.000259 0.001933 0.003037 -0.003550 -0.003698 0.002712
18 0.001348 0.000335 -0.003266 -0.001099 0.001716 -0.001004 -0.003479 0.001890 0.002609 0.003880 -0.000768 0.002727 0.003074 -0.000325 0.000982 -0.003332 -0.001377 0.001638 -0.002948 0.003709 0.003799 -0.000506 0.003869 0.000583 0.003273 0.003373 0.000641 -0.000103 0.001774 0.001243 -0.000032 0.002395 0.001400 0.002414 0.001845 -0.001972 -0.001318 -0.000368 0.001114 0.003171 -0.001206 0.003774 -0.003205 -0.001432 -0.000895 0.002802 -0.003499 0.000367 0.001640 -0.001930 -0.000342 -0.003123 0.003120 0.003416 -0.000569 0.003514 0.000669 -0.003597 -0.001848 -0.001215 0.001803 -0.003585 0.000115 -0.000617 0.003234 0.000785 0.000695 -0.002014 0.003254 0.003472 -0.002413 -0.000402 0.002720 -0.003676 0.002938 0.002300 0.003514 0.002240 0.001484 -0.000519 -0.003621 0.002254 0.002225 -0.002833 -0.003103 0.001434 0.002863 -0.000335 -0.002711 0.002904 0.000531 -0.002884 0.003121 -0.003125 -0.003904 0.001456 -0.002130 0.002909 0.001692 -0.001949 -0.000683 0.002776 0.000004 0.001010 0.000534 0.000440 -0.002839 -0.003244 -0.000908 -0.003025 -0.002278 -0.002622 -0.002911 -0.002181 0.000490 -0.002442 -0.000053 -0.003157 0.002946 -0.001108 -0.000569 -0.003412 -0.000700 -0.001080 0.002265 -0.003749 -0.003042 -0.002423
9 -0.001182 0.000541 -0.003281 -0.000925 0.000083 0.000032 -0.000519 0.001888 0.003718 -0.000578 0.000797 0.003068 0.000424 -0.003567 -0.001112 -0.000911 -0.001776 0.002671 -0.001892 0.001290 -0.003593 0.003288 0.003774 -0.003625 -0.001484 0.002433 -0.001532 -0.003734 -0.000915 0.001902 0.001279 0.003358 -0.002068 -0.002195 0.003646 -0.002132 0.003048 -0.000089 -0.003547 0.002859 -0.003350 -0.003484 0.001445 0.003097 -0.002784 -0.002093 0.000208 -0.002169 -0.001840 -0.003715 -0.002475 0.000866 -0.002418 0.000803 0.003364 -0.001178 -0.001661 -0.000246 -0.000799 -0.002236 0.000179 -0.000298 -0.002862 0.001640 0.002118 -0.001634 0.001809 -0.000123 -0.001210 0.000330 0.001616 0.003131 0.003454 -0.001476 0.003092 -0.001846 -0.002660 0.003641 -0.002965 0.002300 0.002755 -0.001000 -0.003426 -0.003746 -0.001416 -0.000425 0.000244 0.000190 -0.002185 0.001472 0.001987 -0.001346 0.003718 0.003601 -0.000668 -0.003784 0.002100 0.000136 -0.000134 0.001751 -0.003376 -0.003209 -0.002942 0.000937 0.000767 0.000065 -0.001808 0.003238 -0.003870 -0.003031 0.002923 0.000394 0.003419 -0.001340 -0.000095 -0.002230 -0.003250 0.003185 -0.001536 0.002789 -0.001577 -0.002038 -0.001550 0.000967 -0.002176 0.003214 0.000252 0.001559
8 0.000547 -0.003485 0.002080 0.000853 -0.002558 0.001375 0.001959 0.000763 -0.000212 0.002895 -0.001725 0.000010 -0.002463 0.000067 0.003039 -0.002486 0.002142 0.000164 0.003663 0.002416 -0.001188 -0.000147 -0.000608 -0.003592 0.001129 0.003883 -0.000210 0.002733 -0.001708 0.002337 -0.000963 0.000466 0.000940 0.002346 -0.001247 -0.001203 0.003334 -0.000909 0.003282 0.003605 -0.001109 0.000175 -0.002733 0.002771 0.001008 0.002774 -0.002540 -0.000563 -0.001577 0.002074 -0.002070 -0.002283 0.003885 0.002344 -0.002935 0.000070 -0.003574 -0.001253 -0.001922 -0.002287 -0.002251 -0.003215 0.000779 0.001196 0.001915 -0.002774 0.003091 -0.001502 -0.000256 -0.002817 -0.002812 -0.001583 -0.002031 -0.000088 -0.000677 0.001279 -0.002453 -0.000839 -0.000596 -0.000353 0.002314 -0.003376 -0.002394 0.001781 -0.003268 0.003750 0.002679 0.000813 0.001099 -0.002698 0.001837 -0.002390 -0.000610 -0.000272 -0.001200 -0.002737 -0.001187 -0.003495 -0.002518 -0.003119 0.002945 -0.003305 -0.003820 -0.001300 0.003027 -0.003077 0.001982 -0.003879 -0.001719 -0.002286 -0.003790 0.001888 0.001984 -0.000275 -0.003744 0.003162 -0.001595 -0.001130 -0.002107 -0.000145 -0.002062 -0.003239 0.003168 0.000765 0.001988 -0.003631 0.002593 -0.002436
